tree
version=v4
num_class=1
num_tree_per_iteration=1
label_index=0
max_feature_idx=112
objective=binary sigmoid:1
feature_names=cpu_utilization_mean cpu_utilization_std cpu_utilization_min cpu_utilization_max cpu_utilization_median cpu_utilization_p75 cpu_utilization_p95 cpu_utilization_range cpu_utilization_cv memory_usage_mean memory_usage_std memory_usage_min memory_usage_max memory_usage_median memory_usage_p75 memory_usage_p95 memory_usage_range memory_usage_cv request_latency_mean request_latency_std request_latency_min request_latency_max request_latency_median request_latency_p75 request_latency_p95 request_latency_range request_latency_cv error_rate_mean error_rate_std error_rate_min error_rate_max error_rate_median error_rate_p75 error_rate_p95 error_rate_range error_rate_cv request_rate_mean request_rate_std request_rate_min request_rate_max request_rate_median request_rate_p75 request_rate_p95 request_rate_range request_rate_cv cpu_utilization_slope cpu_utilization_last_vs_mean cpu_utilization_last_vs_first cpu_utilization_momentum memory_usage_slope memory_usage_last_vs_mean memory_usage_last_vs_first memory_usage_momentum request_latency_slope request_latency_last_vs_mean request_latency_last_vs_first request_latency_momentum error_rate_slope error_rate_last_vs_mean error_rate_last_vs_first error_rate_momentum request_rate_slope request_rate_last_vs_mean request_rate_last_vs_first request_rate_momentum cpu_utilization_max_delta cpu_utilization_zscore_last cpu_utilization_spike_count memory_usage_max_delta memory_usage_zscore_last memory_usage_spike_count request_latency_max_delta request_latency_zscore_last request_latency_spike_count error_rate_max_delta error_rate_zscore_last error_rate_spike_count request_rate_max_delta request_rate_zscore_last request_rate_spike_count cpu_utilization_recent_mean cpu_utilization_recent_std cpu_utilization_recent_max cpu_utilization_recent_slope memory_usage_recent_mean memory_usage_recent_std memory_usage_recent_max memory_usage_recent_slope request_latency_recent_mean request_latency_recent_std request_latency_recent_max request_latency_recent_slope error_rate_recent_mean error_rate_recent_std error_rate_recent_max error_rate_recent_slope request_rate_recent_mean request_rate_recent_std request_rate_recent_max request_rate_recent_slope corr_cpu_utilization__memory_usage corr_cpu_utilization__request_latency corr_cpu_utilization__error_rate corr_cpu_utilization__request_rate corr_memory_usage__request_latency corr_memory_usage__error_rate corr_memory_usage__request_rate corr_request_latency__error_rate corr_request_latency__request_rate corr_error_rate__request_rate cpu_mem_ratio err_rps_ratio stress_signal
feature_infos=[32.751811981201172:68.038764953613281] [1.7163584232330322:21.710962295532227] [15.966372489929199:61.29339599609375] [38.036903381347656:86.9041748046875] [31.828113555908203:68.687690734863281] [34.958164215087891:71.56854248046875] [37.321460723876953:85.527297973632812] [6.9535865783691406:70.93780517578125] [0.030107952654361725:0.38480117917060852] [56.388565063476562:74.659896850585938] [0.9100683331489563:22.699329376220703] [11.204659461975098:69.079605102539062] [60.384647369384766:94.524772644042969] [57.048107147216797:72.45477294921875] [58.756481170654297:85.524078369140625] [59.84381103515625:93.185691833496094] [3.6968193054199219:63.522079467773438] [0.014188486151397228:0.39931371808052063] [115.08747863769531:249.08241271972656] [4.4420647621154785:144.03421020507812] [67.197700500488281:169.15200805664062] [128.49638366699219:674.36553955078125] [114.02960205078125:187.45124816894531] [120.22038269042969:376.0528564453125] [127.29914093017578:517.0582275390625] [18.83001708984375:528.131591796875] [0.024907423183321953:0.78476357460021973] [0.29292088747024536:3.020132303237915] [0.21827365458011627:2.931056022644043] [0:0.71613019704818726] [0.77451276779174805:11.865723609924316] [0.2168121337890625:2.0567169189453125] [0.37610229849815369:4.5161285400390625] [0.69404768943786621:8.1063728332519531] [0.77451276779174805:11.865723609924316] [0.21915033459663391:1.8739079236984253] [519.41082763671875:1527.21875] [59.573326110839844:390.849609375] [0:1281.457763671875] [693.2618408203125:2304.436767578125] [510.79034423828125:1507.3837890625] [587.426025390625:1606.857666015625] [676.26446533203125:1999.509033203125] [256.5478515625:1445.828857421875] [0.043787304311990738:0.44884401559829712] [-0.83956307069100766:0.79278273313500613] [-47.942420959472656:27.722011566162109] [-49.671417236328125:44.483688354492188] [-46.0845947265625:42.771903991699219] [-1.0114983647424138:0.94627207194013241] [-55.493110656738281:26.842056274414062] [-59.438377380371094:57.767036437988281] [-59.259777069091797:56.466472625732422] [-5.8914869341859637:5.729814412508385] [-106.06402587890625:498.04168701171875] [-499.61627197265625:492.23513793945312] [-406.1739501953125:393.81008911132812] [-0.11878971587530146:0.11933336278905504] [-2.9344182014465332:10.294406890869141] [-10.807613372802734:11.073559761047363] [-8.8864021301269531:8.7109622955322266] [-16.736600425913135:17.607747306516348] [-1055.3861083984375:887.3614501953125] [-1137.9952392578125:1044.8809814453125] [-998.6868896484375:970.67364501953125] [2.496002197265625:30.957735061645508] [-6.0683302879333496:5.0026946067810059] [0:9] [1.5676383972167969:24.2105712890625] [-6.7352108955383301:5.5914621353149414] [0:9] [7.2737655639648438:493.3966064453125] [-6.5582566261291504:7.6171441078186035] [0:9] [0.44512975215911865:7.3598637580871582] [-3.1559453010559082:6.5650844573974609] [0:8] [95.63458251953125:1162.1766357421875] [-6.5807309150695801:5.8880829811096191] [0:9] [18.198593139648438:84.772216796875] [0.26614025235176086:18.978071212768555] [24.820688247680664:86.9041748046875] [-6.4825358419707326:6.4286598321163293] [12.477390289306641:91.569442749023438] [0.17014338076114655:23.441635131835938] [21.248126983642578:94.524772644042969] [-7.6753802848584707:7.9952376683553039] [88.590126037597656:499.647705078125] [0.81080484390258789:194.92808532714844] [93.77569580078125:674.36553955078125] [-52.204498198538104:61.197417473070551] [0:7.8674535751342773] [0:3.538689136505127] [0:11.865723609924316] [-0.95101873188307762:1.1681749549779024] [177.61001586914062:1865.80078125] [11.471649169921875:482.47427368164062] [234.54252624511719:2304.436767578125] [-134.53357932350855:141.09526385683] [-0.39007471023491253:0.99668928376717458] [-0.053106714085885562:0.99762556481915088] [-0.88850796930061127:0.97744329739145819] [-0.067885246793739099:0.99690844180010174] [-0.42832797780539589:0.99705042843741254] [-0.92321432514146129:0.98614070256418174] [-0.42820316046896728:0.99813987797172965] [-0.30453208006348309:0.97576737512992917] [-0.8931051383934846:0.99990239266821945] [-0.87114317090770199:0.97659276931542327] [0.56528013944625854:0.98086756467819214] [0.00054085213923826814:0.0028629018925130367] [33.750049591064453:702.8687744140625]
tree_sizes=1266 1182 753 674 673 881 673 777 780 984 679 783 784 680 679 983

Tree=0
num_leaves=11
num_cat=0
split_feature=25 16 101 53 39 68 35 21 37 81
split_gain=36187.2 8350.69 8230.35 5466.51 5282.95 5809.9 4712.96 4709.14 4677.29 629.916
threshold=68.299633026123061 15.944034576416017 0.95047525307637559 -0.64887598699647742 1671.4130859375002 2.3825836181640629 0.49470494687557226 202.12696838378909 146.37351226806643 1.5615536570549013
decision_type=2 2 2 2 2 2 2 2 2 2
left_child=1 4 3 -2 5 -1 -3 -6 -8 -5
right_child=2 6 -4 9 7 -7 8 -9 -10 -11
leaf_value=-3.1245883028399439 -3.8005415779616292 -3.8093980150266886 -3.808553260820386 -2.7946750827624482 -2.0416481207532629 -3.813433122116145 -2.0291421707293575 -3.8072644966063725 -3.803400108689543 -1.7842901515394838
leaf_weight=39.151526506990194 3.7192849405109873 7.0424330234527615 6.5362581498920909 4.8416727930307379 9.1111479923129064 127.90818980336189 19.080592509359125 5.8760300539433947 4.4455358460545531 55.437154170125723
leaf_count=1247 169 320 297 106 72 5793 183 267 202 334
internal_value=-3.10404 -3.43342 -2.13046 -1.96037 -3.5652 -3.64941 -2.68156 -2.696 -2.35411 -1.84738
internal_weight=283.15 212.615 70.5344 63.9981 182.047 167.06 30.5686 14.9872 23.5261 60.2788
internal_count=8990 8084 906 609 7379 7040 705 339 385 440
is_linear=0
shrinkage=1


Tree=1
num_leaves=10
num_cat=0
split_feature=104 7 16 97 69 32 74 53 53
split_gain=3677.66 1879.75 2358.31 1662.87 1033.4 698.495 506.115 480.549 334.769
threshold=0.93752738764058974 14.557199478149416 7.5617656707763681 64.033317565917983 1.5715807080268862 1.4551028013229372 0.70297297835350048 -0.224652917347343 -0.27014584892423649
decision_type=2 2 2 2 2 2 2 2 2
left_child=1 4 3 -3 -1 -2 -4 -6 -7
right_child=5 2 6 -5 7 8 -8 -9 -10
leaf_value=-0.050342522010498193 -0.050847033344890075 1.0038487657290605 -0.043707576572691358 0.20558114476839082 0.91592460157942535 0.37711703060968621 0.31286366517192754 0.18938184868584737 -0.038658575440175355
leaf_weight=52.006097825244069 104.73327053897083 20.782978504896167 9.6930549312382919 10.442012317478655 3.1346956510096788 15.170169208198788 444.86150603927672 7.2210305035114271 6.3672799635678521
leaf_count=1850 4092 112 248 75 16 51 2187 130 229
internal_value=0.24638 0.302329 0.335461 0.753114 0.0422261 0.00264801 0.305071 0.475001 0.255718
internal_weight=674.412 548.141 485.78 31.225 62.3618 126.271 454.555 10.3557 21.5374
internal_count=8990 4618 2622 187 1996 4372 2435 146 280
is_linear=0
shrinkage=0.05


Tree=2
num_leaves=6
num_cat=0
split_feature=104 43 41 20 71
split_gain=2216.66 1076.89 609.282 424.277 181.505
threshold=0.95127497707525122 428.06961059570318 739.28491210937511 155.592887878418 263.05617523193365
decision_type=2 2 2 2 2
left_child=1 4 -3 -4 -1
right_child=-2 2 3 -5 -6
leaf_value=-0.050497130819965236 -0.050371763801239977 -0.048166473247709202 0.24913132850476441 0 0.22285340909121545
leaf_weight=41.253421230241656 84.540578743442893 17.912874214351177 651.07905440591276 17.690966812893748 6.0743732452392569
leaf_count=1335 3566 516 3184 387 2
internal_value=0.191072 0.21898 0.23486 0.242577 -0.0104935
internal_weight=818.551 734.011 686.683 668.77 47.3278
internal_count=8990 5424 4087 3571 1337
is_linear=0
shrinkage=0.05


Tree=3
num_leaves=5
num_cat=0
split_feature=104 19 108 33
split_gain=1560.44 1333.04 478.112 475.424
threshold=0.95127497707525122 8.5601763725280779 0.999217962326442 1.2662047147750857
decision_type=2 2 2 2
left_child=1 -1 3 -3
right_child=-2 2 -4 -5
leaf_value=-0.050355931362228025 -0.050241772118001009 -0.048866891401080477 -0.049715892219396207 0.20798135131745346
leaf_weight=58.319610128179193 80.622861120849848 17.783430077135563 18.655250178650022 754.9481289088726
leaf_count=2071 3566 427 411 2515
internal_value=0.158956 0.178899 0.195899 0.20195
internal_weight=930.329 849.706 791.387 772.732
internal_count=8990 5424 3353 2942
is_linear=0
shrinkage=0.05


Tree=4
num_leaves=5
num_cat=0
split_feature=104 19 108 33
split_gain=1177.85 984.747 350.422 345.776
threshold=0.95127497707525122 8.5601763725280779 0.999217962326442 1.2662047147750857
decision_type=2 2 2 2
left_child=1 -1 3 -3
right_child=-2 2 -4 -5
leaf_value=-0.050180255470515946 -0.050112701108564417 -0.04846790676581389 -0.049299561707438724 0.1741155341151325
leaf_weight=55.66808800585568 76.885930862277746 17.059906166046858 17.899752398952842 853.94460746832192
leaf_count=2071 3566 427 411 2515
internal_value=0.137028 0.152351 0.165132 0.169648
internal_weight=1021.46 944.572 888.904 871.005
internal_count=8990 5424 3353 2942
is_linear=0
shrinkage=0.05


Tree=5
num_leaves=7
num_cat=0
split_feature=19 101 106 77 7 61
split_gain=882.811 552.718 410.474 331.352 647.604 330.391
threshold=8.5601763725280779 0.95700618228687995 0.021315916477502233 280.27139282226568 32.623544692993171 3.2953694709508548
decision_type=2 2 2 2 2 2
left_child=-1 3 -3 5 -5 -2
right_child=1 2 -4 4 -6 -7
leaf_value=-0.050265536555964802 0.16737511267040314 0.17391749620828342 -0.050884653974781251 -0.056124550393061336 0.15549597230437562 0.015620731591192675
leaf_weight=69.032681183889508 703.22630918212235 28.155342316254973 65.593571815639734 56.401987832039595 96.370087444782257 38.789639314636588
leaf_count=2810 1826 18 2660 1068 78 501
internal_value=0.121459 0.13354 0.0172248 0.145638 0.0771856 0.159541
internal_weight=1057.57 988.537 93.7489 894.788 152.772 742.016
internal_count=8961 6151 2678 3473 1146 2327
is_linear=0
shrinkage=0.05


Tree=6
num_leaves=5
num_cat=0
split_feature=104 1 33 2
split_gain=752.238 535.233 327.204 291.849
threshold=0.95127497707525122 3.3205082416534428 1.2662047147750857 55.870683670043952
decision_type=2 2 2 2
left_child=1 -1 -3 -4
right_child=-2 2 3 -5
leaf_value=-0.050620510316121095 -0.049835845460669048 -0.049614221536482997 0.13563079780406839 -0.049350930832523579
leaf_weight=43.344403125345707 68.915939250960946 24.674975508823991 958.62242681719363 20.934014922007918
leaf_count=1593 3475 677 2706 510
internal_value=0.109056 0.119594 0.127033 0.13158
internal_weight=1116.49 1047.58 1004.23 979.556
internal_count=8961 5486 3893 3216
is_linear=0
shrinkage=0.05


Tree=7
num_leaves=6
num_cat=0
split_feature=104 19 109 103 65
split_gain=625.021 535.642 236.349 291.662 160.291
threshold=0.95127497707525122 8.5601763725280779 0.91998578577592316 0.83798023911053898 4.2736988067626962
decision_type=2 2 2 2 2
left_child=1 -1 4 -4 -3
right_child=-2 2 3 -5 -6
leaf_value=-0.049753431016664074 -0.049706742582032608 0.1618857884999351 0.11992706637411399 -0.052653966463782786 0.11142531269803434
leaf_weight=50.444208269938827 65.723406966775656 216.6669635232538 51.426259778439999 44.646411962807178 738.16307368502021
leaf_count=2112 3475 434 243 741 1956
internal_value=0.0989293 0.107882 0.115536 0.0394948 0.123085
internal_weight=1167.07 1101.35 1050.9 96.0727 954.83
internal_count=8961 5486 3374 984 2390
is_linear=0
shrinkage=0.05


Tree=8
num_leaves=6
num_cat=0
split_feature=104 19 108 99 31
split_gain=528.442 449.302 207.499 343.341 111.171
threshold=0.95127497707525122 8.5601763725280779 0.99848039579270986 4.0339405406605087 0.70963746309280407
decision_type=2 2 2 2 2
left_child=1 -1 4 -4 -3
right_child=-2 2 3 -5 -6
leaf_value=-0.049582239937647092 -0.04957738722037433 0.055650528036872364 -0.055349760553144639 0.097531742070359626 0.12002724261342577
leaf_weight=48.148907221853733 62.679620667360723 78.933513578027487 49.828039053827524 129.98613928444684 839.24749740213156
leaf_count=2112 3475 582 764 584 1444
internal_value=0.0906074 0.0983538 0.104926 0.0548186 0.114614
internal_weight=1208.82 1146.14 1098 179.814 918.181
internal_count=8961 5486 3374 1348 2026
is_linear=0
shrinkage=0.05


Tree=9
num_leaves=8
num_cat=0
split_feature=19 108 83 107 31 11 68
split_gain=445.057 324.285 344.133 221.86 108.382 181.315 107.61
threshold=8.5601763725280779 0.99848039579270986 0.16733171867601973 0.89161840260583347 0.70963746309280407 53.994855880737312 2.5534095764160161
decision_type=2 2 2 2 2 2 2
left_child=-1 4 -3 -4 5 -2 -6
right_child=1 2 3 -5 6 -7 -8
leaf_value=-0.049750584837241679 0.099117275474933209 -0.053897221684497482 -0.052051481298975369 0.10715782295638228 0.1428533079726628 -0.052780158499645291 0.098502508967334479
leaf_weight=58.394001054577529 56.04359161388129 71.843661589547992 25.583437841385603 120.63643362745643 187.50014596991241 28.71584593039006 692.23953423183411
leaf_count=2810 145 2083 794 515 322 640 1652
internal_value=0.0837541 0.0904251 0.034805 0.0787977 0.102899 0.0470572 0.108163
internal_weight=1240.96 1182.56 218.064 146.22 964.499 84.7594 879.74
internal_count=8961 6151 3392 1309 2759 785 1974
is_linear=0
shrinkage=0.05


Tree=10
num_leaves=5
num_cat=0
split_feature=104 33 2 1
split_gain=444.486 350.486 260.078 204.837
threshold=0.95127497707525122 1.2849423885345461 55.551326751708991 3.3205082416534428
decision_type=2 2 2 2
left_child=1 -1 3 -3
right_child=-2 2 -4 -5
leaf_value=-0.052787188677798184 -0.049490086110365837 -0.050286571433122464 -0.050358890862836153 0.099046045908956035
leaf_weight=41.799307238310575 60.632966919802129 22.394877672195435 29.99479631986469 1198.1257234979421
leaf_count=1280 3556 775 888 2607
internal_value=0.0816294 0.0878534 0.0926328 0.0962261
internal_weight=1352.95 1292.31 1250.52 1220.52
internal_count=9106 5550 4270 3382
is_linear=0
shrinkage=0.05


Tree=11
num_leaves=6
num_cat=0
split_feature=19 108 77 37 32
split_gain=372.508 265.785 167.35 403.668 166.638
threshold=8.5601763725280779 0.999217962326442 280.27139282226568 221.57590484619143 0.89479258656501781
decision_type=2 2 2 2 2
left_child=-1 2 4 -4 -2
right_child=1 -3 3 -5 -6
leaf_value=-0.049660654332360193 -0.00067180384836693779 -0.05067574632215175 -0.057472879298451296 0.096089547503954112 0.096672104654797392
leaf_weight=55.311416663229465 44.79079823102802 35.889934472739697 66.132848207838833 116.27339335344732 1057.5534511329606
leaf_count=2857 714 1363 1426 90 2656
internal_value=0.0761801 0.081522 0.0852905 0.0401318 0.0926745
internal_weight=1375.95 1320.64 1284.75 182.406 1102.34
internal_count=9106 6249 4886 1516 3370
is_linear=0
shrinkage=0.05


Tree=12
num_leaves=6
num_cat=0
split_feature=26 108 21 109 105
split_gain=298.73 234.761 179.399 115.916 50.5304
threshold=0.05422413349151612 0.999217962326442 146.48683166503909 0.91998578577592316 0.86228060804876472
decision_type=2 2 2 2 2
left_child=4 2 -2 -4 -1
right_child=1 -3 3 -5 -6
leaf_value=-0.051281180371461177 -0.049385451128303864 -0.0504121366899319 0.087062802400363098 0.030856181282839429 0.093571886676162591
leaf_weight=55.222532521933317 25.211702054366469 34.403196174651384 1167.4485350716859 104.17895430047065 5.6052790880203238
leaf_count=2369 881 1366 3426 940 124
internal_value=0.071482 0.076446 0.0798861 0.0825252 -0.0358267
internal_weight=1392.07 1331.24 1296.84 1271.63 60.8278
internal_count=9106 6613 5247 4366 2493
is_linear=0
shrinkage=0.05


Tree=13
num_leaves=5
num_cat=0
split_feature=104 19 34 77
split_gain=341.628 256.116 156.281 147.535
threshold=0.95127497707525122 8.5601763725280779 1.4586287736892702 280.73532104492193
decision_type=2 2 2 2
left_child=1 -1 -3 -4
right_child=-2 2 3 -5
leaf_value=-0.049122383940997709 -0.049425465517443111 -0.053541686941406819 0.085388728510437481 0.035710767924621231
leaf_weight=40.909601172432303 58.978112323209643 21.691565342247486 1105.1012938451022 179.43422051146626
leaf_count=2163 3556 424 2056 907
internal_value=0.067197 0.0723728 0.0762508 0.0785214
internal_weight=1406.11 1347.14 1306.23 1284.54
internal_count=9106 5550 3387 2963
is_linear=0
shrinkage=0.05


Tree=14
num_leaves=5
num_cat=0
split_feature=33 35 108 1
split_gain=296.066 219.095 181.514 143.697
threshold=1.2849423885345461 0.39844407141208654 0.999217962326442 3.3205082416534428
decision_type=2 2 2 2
left_child=-1 -2 3 -3
right_child=1 2 -4 -5
leaf_value=-0.052925703283055216 -0.05239744640159464 -0.050754769120933456 -0.050237447177092998 0.076112756054047159
leaf_weight=51.53958454541862 35.730432949960232 21.592007176950574 28.975656867958605 1277.8849742207676
leaf_count=2049 1382 786 1140 3749
internal_value=0.0633728 0.0678388 0.0711473 0.0739289
internal_weight=1415.72 1364.18 1328.45 1299.48
internal_count=9106 7057 5675 4535
is_linear=0
shrinkage=0.05


Tree=15
num_leaves=8
num_cat=0
split_feature=19 61 71 77 7 33 112
split_gain=224.261 198.513 382.592 201.677 193.65 169.622 6.93426
threshold=8.5601763725280779 2.2988253216903751 65.127807617187514 280.27139282226568 32.623544692993171 1.3893651962280276 125.77196502685548
decision_type=2 2 2 2 2 2 2
left_child=-1 3 -3 5 -5 -2 -4
right_child=1 2 6 4 -6 -7 -8
leaf_value=-0.049198181611494606 -0.0067199368514640635 -0.059241926226501498 0.088624271413705019 -0.05725604645306645 0.080830579378544307 0.081773966568916071 0.057927698322665359
leaf_weight=47.389536454342306 56.38778461702168 93.681906799785793 59.909129991196096 57.905034840106964 43.59144183062017 891.21198056451976 65.622584160417318
leaf_count=2854 923 1919 24 1344 83 1872 78
internal_value=0.0562188 0.0602327 0.0165666 0.0692848 0.00177257 0.0764538 0.0735572
internal_weight=1315.7 1268.31 219.214 1049.1 101.496 947.6 125.532
internal_count=9097 6243 2021 4222 1427 2795 102
is_linear=0
shrinkage=0.05


end of trees

feature_importances:
request_latency_std=9
corr_memory_usage__request_latency=9
corr_request_latency__request_rate=7
error_rate_p95=6
request_rate_max_delta=4
cpu_utilization_std=3
cpu_utilization_range=3
request_latency_slope=3
cpu_utilization_min=2
memory_usage_range=2
request_latency_max=2
error_rate_median=2
error_rate_p75=2
error_rate_cv=2
request_rate_std=2
request_rate_slope=2
memory_usage_max_delta=2
request_latency_max_delta=2
corr_cpu_utilization__request_latency=2
corr_error_rate__request_rate=2
memory_usage_min=1
request_latency_min=1
request_latency_range=1
request_latency_cv=1
error_rate_range=1
request_rate_max=1
request_rate_p75=1
request_rate_range=1
cpu_utilization_max_delta=1
memory_usage_zscore_last=1
error_rate_max_delta=1
cpu_utilization_recent_std=1
cpu_utilization_recent_slope=1
request_rate_recent_std=1
request_rate_recent_slope=1
corr_cpu_utilization__request_rate=1
corr_memory_usage__error_rate=1
corr_memory_usage__request_rate=1
corr_request_latency__error_rate=1
stress_signal=1

parameters:
[boosting: gbdt]
[objective: binary]
[metric: binary_logloss,auc]
[tree_learner: serial]
[device_type: cpu]
[data_sample_strategy: bagging]
[data: ]
[valid: ]
[num_iterations: 500]
[learning_rate: 0.05]
[num_leaves: 15]
[num_threads: 0]
[seed: 42]
[deterministic: 0]
[force_col_wise: 0]
[force_row_wise: 0]
[histogram_pool_size: -1]
[max_depth: 4]
[min_data_in_leaf: 50]
[min_sum_hessian_in_leaf: 0.001]
[bagging_fraction: 0.7]
[pos_bagging_fraction: 1]
[neg_bagging_fraction: 1]
[bagging_freq: 5]
[bagging_seed: 400]
[bagging_by_query: 0]
[feature_fraction: 0.6]
[feature_fraction_bynode: 1]
[feature_fraction_seed: 30056]
[extra_trees: 0]
[extra_seed: 12879]
[early_stopping_round: 0]
[early_stopping_min_delta: 0]
[first_metric_only: 0]
[max_delta_step: 0]
[lambda_l1: 1]
[lambda_l2: 1]
[linear_lambda: 0]
[min_gain_to_split: 0]
[drop_rate: 0.1]
[max_drop: 50]
[skip_drop: 0.5]
[xgboost_dart_mode: 0]
[uniform_drop: 0]
[drop_seed: 17869]
[top_rate: 0.2]
[other_rate: 0.1]
[min_data_per_group: 100]
[max_cat_threshold: 32]
[cat_l2: 10]
[cat_smooth: 10]
[max_cat_to_onehot: 4]
[top_k: 20]
[monotone_constraints: ]
[monotone_constraints_method: basic]
[monotone_penalty: 0]
[feature_contri: ]
[forcedsplits_filename: ]
[refit_decay_rate: 0.9]
[cegb_tradeoff: 1]
[cegb_penalty_split: 0]
[cegb_penalty_feature_lazy: ]
[cegb_penalty_feature_coupled: ]
[path_smooth: 0]
[interaction_constraints: ]
[verbosity: -1]
[saved_feature_importance_type: 0]
[use_quantized_grad: 0]
[num_grad_quant_bins: 4]
[quant_train_renew_leaf: 0]
[stochastic_rounding: 1]
[linear_tree: 0]
[max_bin: 255]
[max_bin_by_feature: ]
[min_data_in_bin: 3]
[bin_construct_sample_cnt: 200000]
[data_random_seed: 175]
[is_enable_sparse: 1]
[enable_bundle: 1]
[use_missing: 1]
[zero_as_missing: 0]
[feature_pre_filter: 1]
[pre_partition: 0]
[two_round: 0]
[header: 0]
[label_column: ]
[weight_column: ]
[group_column: ]
[ignore_column: ]
[categorical_feature: ]
[forcedbins_filename: ]
[precise_float_parser: 0]
[parser_config_file: ]
[objective_seed: 16083]
[num_class: 1]
[is_unbalance: 0]
[scale_pos_weight: 20]
[sigmoid: 1]
[boost_from_average: 1]
[reg_sqrt: 0]
[alpha: 0.9]
[fair_c: 1]
[poisson_max_delta_step: 0.7]
[tweedie_variance_power: 1.5]
[lambdarank_truncation_level: 30]
[lambdarank_norm: 1]
[label_gain: ]
[lambdarank_position_bias_regularization: 0]
[eval_at: ]
[multi_error_top_k: 1]
[auc_mu_weights: ]
[num_machines: 1]
[local_listen_port: 12400]
[time_out: 120]
[machine_list_filename: ]
[machines: ]
[gpu_platform_id: -1]
[gpu_device_id: -1]
[gpu_use_dp: 0]
[num_gpu: 1]

end of parameters

pandas_categorical:null
